Language model created by QuickLM on Sun Mar 28 04:09:29 EDT 2021
Copyright (c) 1996-2010 Carnegie Mellon University and Alexander I. Rudnicky

The model is in standard ARPA format, designed by Doug Paul while he was at MITRE.

The code that was used to produce this language model is available in Open Source.
Please visit http://www.speech.cs.cmu.edu/tools/ for more information

The (fixed) discount mass is 0.5. The backoffs are computed using the ratio method.
This model based on a corpus of 6 sentences and 7 words

\data\
ngram 1=7
ngram 2=11
ngram 3=12

\1-grams:
-0.9031 </s> -0.3010
-0.9031 <s> -0.2430
-1.2041 EXIT -0.2430
-1.3802 FACEBOOK -0.2430
-1.3802 GOOGLE -0.2430
-1.2041 OPEN -0.2430
-1.3802 SPRING -0.2430

\2-grams:
-0.6021 <s> EXIT 0.0000
-0.6021 <s> OPEN 0.0000
-0.7782 EXIT FACEBOOK 0.0000
-0.7782 EXIT GOOGLE 0.0000
-0.7782 EXIT SPRING 0.0000
-0.3010 FACEBOOK </s> -0.3010
-0.3010 GOOGLE </s> -0.3010
-0.7782 OPEN FACEBOOK 0.0000
-0.7782 OPEN GOOGLE 0.0000
-0.7782 OPEN SPRING 0.0000
-0.3010 SPRING </s> -0.3010

\3-grams:
-0.7782 <s> EXIT FACEBOOK
-0.7782 <s> EXIT GOOGLE
-0.7782 <s> EXIT SPRING
-0.7782 <s> OPEN FACEBOOK
-0.7782 <s> OPEN GOOGLE
-0.7782 <s> OPEN SPRING
-0.3010 EXIT FACEBOOK </s>
-0.3010 EXIT GOOGLE </s>
-0.3010 EXIT SPRING </s>
-0.3010 OPEN FACEBOOK </s>
-0.3010 OPEN GOOGLE </s>
-0.3010 OPEN SPRING </s>

\end\